0.1920453610
-0.0771279410
0.3292473550
-0.2166506800
0.1437437390
0.1136578540
-0.1156048920
0.2561162110
0.1280204210
-0.0600938685
0.1353438500
-0.1398046610
0.1646260320
0.3037918810
0.3068454860
-0.1971452830
0.1002613160
-0.0716868713
0.1618817900
0.0960350707
-0.1937864570
0.1354816410
-0.3359396160
0.0811343193
-0.1506662820
0.0340672098
0.1009154020
-0.1323016880
0.2666388150
0.1135867160
-0.1120132130
-0.2654593290
-0.1263210920
0.2753646370
-0.1095546040
-0.2703902130
-0.1882695110
-0.0387800746
0.0301560834
-0.1653265660
-0.1432031390
0.1834930330
0.0588518567
-0.1402698610
-0.1147103760
-0.1548281160
0.1053571480
-0.2173241080
0.1859350350
-0.0036214944
-0.0852919668
0.2278071790
0.0303447656
0.0970211774
-0.0784682184
0.0083504925
0.2554797830
0.2610025700
-0.0000345159
-0.2725839910
-0.2388751060
0.1468456390
-0.0251454357
0.1727938500
-0.3239799140
0.1183596400
0.1070383190
-0.2796005010
0.0563432127
0.1498826440
-0.2077285650
-0.2685791850
0.0654396862
0.1925648750
0.1907618190
0.0137910666
0.2815412880
0.2600964010
-0.1850190460
0.1388586160
-0.1138855960
-0.0964404568
0.2560098170
0.2012334170
0.2697555720
0.2278913110
0.2003761080
-0.1162245720
-0.1241347790
-0.1762594430
-0.1899698080
-0.1326620430
-0.0111757955
-0.2155704650
-0.0433626100
-0.0634056777
-0.0994516313
0.1921068730
-0.2417125250
0.1022648890
0.2968089880
0.1780529470
0.2111842630
-0.2641108930
0.2473917310
-0.1209625900
0.0634279475
-0.0934673399
0.0763697699
-0.0917328373
0.0184349455
0.2667824330
-0.0851837918
-0.2072134910
0.3003405630
-0.2043452860
0.0823290348
-0.2681873740
0.0712763146
0.2402042150
-0.1141518430
-0.0717413649
-0.2356550690
0.1048120560
0.0146060977
-0.0613741726
0.1393869070
0.1688396480
-0.2166031000
-0.1687258930
-0.2524677220
0.1759826840
0.1242150070
0.1016464160
0.1028646310
0.0327546485
-0.2249092610
-0.1062127720
0.0574301481
-0.1606452610
0.0558861084
-0.0188919008
0.2423138170
0.0250280965
-0.2901088890
0.2641870380
0.0002994253
-0.1357480440
-0.0666107684
-0.0755140632
-0.2596299950
-0.1006174980
0.1903686520
-0.2323182370
-0.0577748530
-0.1917375180
0.1947870700
0.0504272170
-0.0877902433
0.0671991482
-0.1980347780
-0.1041556370
-0.0509708039
-0.0407399014
0.1652462630
0.2530073230
-0.1873321980
0.1566305910
-0.2992520930
-0.0057672611
-0.0079740211
-0.1640735270
-0.1441201720
0.0285369884
0.1612217280
0.1127646420
-0.1732462350
0.0278507136
0.0705732629
-0.0317870975
0.0399376042
-0.1409904360
0.1907771830
0.1113638650
-0.1701912130
0.1095278110
0.0677494407
-0.0986776799
-0.1482533510
0.0801585093
-0.2232972680
-0.0405553952
0.0032858609
-0.0560930930
0.1768423020
-0.0258901194
-0.1803315730
0.1154377240
0.0174378380
-0.2885795830
0.2764834170
0.0682849810
0.1855946780
-0.0840061530
0.0194394272
-0.2537125650
-0.2550914290
-0.0430034734
0.1146774960
0.1883138570
0.1135178730
0.0742589831
0.0782737061
-0.5152467490
-0.0886985213
0.1202779860
-0.0880620629
-0.0717492402
-0.0921440050
0.0285536926
0.1086506320
0.0518614352
0.1430795490
0.2765178980
-0.3622039260
0.1379524620
0.1361864510
-0.0972247869
-0.3190399410
-0.1312046500
-0.0725168660
0.0625267997
-0.0084115015
0.0643108115
-0.2137761860
0.0093409503
0.0193717889
-0.1609490070
-0.1884289680
-0.1659237000
0.2234286220
0.0761885568
-0.1492258460
0.1920698290
0.1192191760
-0.0323017687
0.1127837670
-0.1436641960
-0.2459684160
-0.1918813880
0.0072869142
-0.0580094196
-0.4326168000
-0.1532225160
-0.0174938999
0.0681657940
-0.2375637590
0.0232622549
-0.0500908308
-0.0498826504
0.2363595520
-0.2252251950
0.0022427884
-0.1384531860
-0.1603192840
0.2251168790
-0.0116013875
0.2441066800
-0.1957161580
0.1741589750
0.2170349210
0.1206409110
0.2111753970
-0.1752892430
0.0769201815
-0.1541495170
-0.0037653202
-0.1936693790
0.0968290269
0.0794515386
-0.2139800040
-0.1406099650
0.3382326660
-0.1987627740
0.2049625520
-0.1380185780
0.1350925120
-0.3523474630
-0.1595351100
-0.0991385207
-0.1774378870
-0.0238486789
0.1420309540
-0.2348059560
-0.1617614030
-0.1690870670
0.1804496650
0.0220471565
-0.2040870340
-0.1729904410
0.0370840728
0.3164469300
0.1819079220
0.1123228890
-0.3489528000
-0.0819426700
-0.0593170561
-0.1593075250
0.1124869140
0.0303212591
-0.0738852397
0.1395095290
-0.2088436780
-0.2853582800
-0.4176800250
-0.1509344430
0.2703069150
0.1286906600
-0.0249395538
0.1548009220
0.1542453770
-0.0500563122
-0.0411818698
0.2560521960
0.1359477040
0.3393286760
0.1603607980
0.1976239980
0.1833964590
0.3321439620
0.0595312566
0.0708594248
0.1025832000
-0.0692765266
-0.0106878448
-0.0349901021
-0.0558339208
0.2943787870
-0.2393178940
-0.2484551970
0.2447557150
0.1017340720
0.0237680059
0.2778534000
0.2661246060
-0.2706772390
0.2480397220
0.0618390813
-0.2588015790
0.2388613220
0.0248290785
0.0875608325
0.1488021170
0.0110414457
-0.3470374940
0.1643146130
0.2239506690
0.2088019400
-0.2430163770
-0.2349371170
0.1159972320
0.0637192428
-0.0404855981
0.2177247110
-0.1225011800
-0.1547429710
-0.0886656493
-0.2614108320
-0.2314184310
0.0524939857
0.2309778030
0.1693044600
-0.0090345219
-0.0397100411
0.1470919250
-0.2299630340
0.1654712560
0.0910726935
-0.0174318217
-0.0580928177
-0.2495573610
-0.3357500140
-0.1911502480
-0.0800136700
-0.2387775030
-0.1407785860
0.0525900647
0.1245588960
-0.2591952680
0.1947608290
0.3258374040
0.0986436307
-0.2802366020
0.0430923477
0.1010204630
-0.1668189320
0.1780045330
-0.0922140032
0.1509427430
0.0168297682
0.1065893620
0.0579012260
-0.2349300980
-0.1226095630
0.2087964860
0.2317837180
0.1845897730
0.1238104780
0.0665477887
-0.0194348358
0.2711519300
-0.2237010900
-0.2847279910
0.2808545830
-0.1100003270
0.0971294120
-0.2839963730
-0.1057873440
-0.1584720310
0.1258026360
-0.0919551030
-0.0409434959
-0.1661850210
-0.1303891240
0.0105989240
0.1963058710
-0.2933951620
0.2950163480
0.0554922633
0.0871716812
-0.0239570364
-0.2002886680
-0.2607088390
0.0930847675
0.0255899094
-0.2103122470
0.0244167652
-0.1186056960
-0.3132996860
0.0614541508
-0.1489502340
0.1262021060
0.2093785550
-0.1728172150
0.0272341724
0.1617245080
0.1329340930
0.0686600879
-0.1009531320
0.2642859220
-0.0984260589
0.1839607810
0.0266889911
0.0022114839
-0.0539831482
0.3997648360
-0.3263434170
-0.0476895198
-0.1620167940
-0.1537396910
-0.1887571070
-0.2237743880
-0.0577432290
-0.2151280940
0.1237649400
0.1244962960
-0.0473467372
0.1378819350
-0.0808713883
-0.0506736115
-0.1505803020
-0.2256870420
-0.1668728140
-0.0045292028
-0.0064396104
0.2745139300
-0.1153580840
0.0265979711
0.2149277330
-0.2362248600
0.0733325928
-0.0540243946
0.1678372320
-0.2761918010
0.0385417901
-0.0024110242
-0.2212464960
-0.2365859900
0.0302461963
-0.2333304290
-0.2837685940
-0.0593556389
-0.1407325120
-0.3264564570
-0.1842921230
-0.1802404080
-0.2297411110
-0.3639915290
-0.1510584950
-0.1695880740
-0.1620364340
0.1416747270
-0.2399615790
-0.0175482910
-0.3104496000
-0.0596816093
-0.0257037338
0.2174438240
0.0762526989
0.1175039410
-0.1462387140
0.0985091329
0.1883513180
-0.0331108272
0.0551003627
0.3122319880
0.1595992000
-0.0818854421
-0.0240856539
-0.0201690886
0.1298163830
0.1982762660
0.1160406170
-0.2445940670
-0.0614380613
-0.0254471917
-0.0513110794
0.0350441970
0.2799015050
0.2959749400
-0.2098833170
-0.1090321170
0.0470223837
-0.0419415906
-0.0017677773
-0.0733412951
-0.1424875110
-0.1337050500
0.1171049400
-0.0603210069
-0.0226058047
-0.0070290305
0.0053180386
-0.0680923462
0.1352479160
-0.0589891002
-0.1187298740
0.3069185610
-0.1851619480
0.2284661830
0.0660783350
-0.1161172240
-0.0290736854
-0.2745216790
0.0610564761
0.1901836250
-0.2399752140
0.0538726971
0.2724689250
0.1460946800
0.0616027713
-0.1562045510
-0.0943298712
0.1896391960
-0.1238109250
-0.2156938910
0.2968102400
-0.2260537740
0.1296367050
-0.1073575390
0.2030480950
0.0549536869
0.0545852259
-0.3448537890
-0.1134249790
-0.3226212860
0.1111090930
0.2061671170
0.2054756130
-0.0552280806
-0.0840195715
0.2683541180
0.3400477170
0.2080617550
-0.2842252550
-0.1578819010
-0.0050398707
-0.0747429281
-0.1620112060
0.1766909660
0.1633572730
-0.1648631100
-0.1909646990
-0.2986836430
0.0638912618
0.0411888175
0.0956594348
-0.1859603080
-0.0939929113
-0.0901045203
0.1846442820
-0.0326649062
0.0677277297
-0.3380841910
0.0720728189
-0.1463581770
0.1670329870
-0.2490911480
0.1455414890
-0.0829048753
-0.0427628122
0.2561531360
-0.0484320410
-0.1411878910
-0.2350037840
0.1152006980
0.1143114120
0.0561928898
-0.0397584364
-0.0362547822
-0.2605326470
0.2075800900
-0.3304003780
-0.1001127590
-0.0893786326
-0.0399491303
-0.1943140630
-0.0919590220
0.0281948037
0.2012919780
0.0012661166
0.1248910280
-0.2192399050
0.0679837242
-0.3131390810
-0.1362028420
-0.2035426050
0.2000727500
0.0591112301
-0.2659108340
